{
    "levels": [
        {
            "inputs": [
                0.3554738476663166, 0.4487454646848693, 0.44456444385797445,
                0.3463540438401299, 0.27912319475692726
            ],
            "outputs": [0, 1, 1, 1, 0, 0],
            "biases": [
                0.14202525673570893, -0.03489481039174659,
                -0.019555797541688055, -0.16995090998651038,
                0.08141661212925663, 0.04587218784362078
            ],
            "weights": [
                [
                    -0.2852533591434441, -0.020834369915904927,
                    -0.0013532644253440376, -0.15500026340349074,
                    -0.09490285746793684, -0.02425857453142259
                ],
                [
                    -0.11639232235352076, 0.03470263927906492,
                    0.2792949439783665, 0.36649936683206386,
                    0.18150605592911567, -0.03994676122287187
                ],
                [
                    -0.08109497429492418, 0.2257021333192354,
                    -0.00240336503322941, 0.23253066166870978,
                    -0.17702822405358076, -0.08375613678268831
                ],
                [
                    -0.13322833213975444, -0.2075874497778303,
                    0.21458115965407862, -0.09693660534819228,
                    -0.05400238564360757, -0.04581523517844813
                ],
                [
                    0.2118154714040911, -0.03559556270889616,
                    -0.14364453040860778, 0.023485345994805423,
                    0.1278898528397523, -0.28030782416666133
                ]
            ]
        },
        {
            "inputs": [0, 1, 1, 1, 0, 0],
            "outputs": [0, 1, 0, 0],
            "biases": [
                0.17397857432935457, 0.11164212408098789, 0.15896892774466817,
                0.11776030074293636
            ],
            "weights": [
                [
                    0.3447915352568626, 0.03118216726986084,
                    -0.08897169756395779, -0.1097777700008221,
                    0.19839256400627447, 0.17676760250533213
                ],
                [
                    -0.02083851527613291, 0.185634663829772,
                    -0.09074972301504017, -0.002491060508876125,
                    -0.012754793439639936, 0.40790447861451373
                ],
                [
                    0.0013180504943343264, 0.1528062128229225,
                    -0.19433520322605835, -0.09146586657321346,
                    0.10542986969535614, 0.09699319325421359
                ],
                [
                    0.17319393482894657, -0.0003814388467649893,
                    0.22262582474556136, -0.09449163178085368,
                    0.017353241385700505, -0.39569666517167895
                ],
                [
                    0.13553959562385642, 0.12854939919714595,
                    -0.109123677196359, -0.19927844782629678,
                    -0.061694393610371115, 0.24083053443430427
                ],
                [
                    -0.12984607703049716, -0.2619518875543716,
                    0.13467016141812896, -0.2988699103412663,
                    -0.17413642858640582, 0.0085559140640169
                ]
            ]
        }
    ]
}
