[
    {
        "levels": [
            {
                "inputs": [
                    0.2120088797797236, 0, 0.6711372460004255, 0,
                    0.5570922653542779
                ],
                "outputs": [1, 0, 0, 1, 0, 0],
                "biases": [0.0, 0.0, 0.0, 0.0, 0.0, 0.0],
                "weights": [
                    [0.0, -0.5, 0.5, 0.0, 0.0, 0.0],
                    [0.0, -1, 1, 0.0, 0.0, 0.0],
                    [1.0, 0.0, 0.0, -1.0, 0.0, 0.0],
                    [0.0, 1, -1, 0.0, 0.0, 0.0],
                    [0.0, 0.5, -0.5, 0.0, 0.0, 0.0]
                ]
            },
            {
                "inputs": [1, 0, 0, 1, 0, 0],
                "outputs": [1, 0, 0, 0],
                "biases": [0.0, 0.0, 0.0, 0.0],
                "weights": [
                    [1.0, 0.0, 0.0, -1.0],
                    [0.0, 1.0, -1.0, 0.0],
                    [0.0, -1.0, 1.0, 0.0],
                    [-1.0, 0.0, 0.0, 1.0],
                    [0.0, 0.0, 0.0, 0.0],
                    [0.0, 0.0, 0.0, 0.0]
                ]
            }
        ]
    },
    {
        "levels": [
            {
                "inputs": [
                    0.6460960460466416, 0.3460707609353506, 0,
                    0.6220864355146133, 0.3073859177972681
                ],
                "outputs": [0, 1, 1, 1, 1, 1],
                "biases": [
                    -0.07872046947036626, 0.15989786697217875,
                    -0.4269679179473695, -0.28981045299131597,
                    -0.32113097800490303, 0.026308872110342302
                ],
                "weights": [
                    [
                        -0.21322815863273537, -0.023741693507976697,
                        0.13431920405182948, 0.20093027304259392,
                        -0.05506165034932679, 0.13163478339675366
                    ],
                    [
                        -0.2639685433099228, -0.24876954214728178,
                        -0.2773053621805832, -0.3004362430170322,
                        0.41180099589919716, 0.056631718404996756
                    ],
                    [
                        0.07722807542295475, 0.5593044720814764,
                        0.3769362764301592, 0.16028715062854773,
                        -0.22620410162209068, -0.027440418810998644
                    ],
                    [
                        0.08253976700366955, 0.46972653240474904,
                        0.14911483478503607, 0.006266365685088024,
                        0.12117111579619749, 0.2209383124447904
                    ],
                    [
                        0.2986386548834252, -0.04981626669445374,
                        -0.3977038934297067, -0.04250808169385978,
                        -0.050666701068700526, 0.31626301306248245
                    ]
                ]
            },
            {
                "inputs": [0, 1, 1, 1, 1, 1],
                "outputs": [0, 0, 0, 0],
                "biases": [
                    -0.08314429015478259, 0.03669346471492341,
                    0.0017805776089324238, -0.04095245123721042
                ],
                "weights": [
                    [
                        -0.1633326178535175, 0.3419671223721844,
                        -0.07627532749904684, 0.1510403124065735,
                        -0.2259328041793192, -0.2081371108793608
                    ],
                    [
                        -0.22459181662898242, -0.07024169691570273,
                        -0.2118284684059044, 0.050363577223007105,
                        -0.13189644023421956, -0.30025064007660046
                    ],
                    [
                        0.10402959184875663, 0.23604850863260146,
                        -0.37194143211840924, 0.03236145105573032,
                        -0.29671162002094914, 0.25281945276722767
                    ],
                    [
                        0.09334704724065712, -0.11664065088072698,
                        0.2602850159196999, 0.1182368196707599,
                        0.141977400259025, 0.1610502489124802
                    ],
                    [
                        0.06372147156175173, -0.07149028088863252,
                        0.3765866626001303, -0.4401255190138317,
                        0.0161093885362609, 0.05533620557920464
                    ],
                    [
                        -0.13912520668498207, -0.11300723558446221,
                        -0.10341158024360314, -0.016531221019707734,
                        -0.19857258486626223, -0.06260886772792373
                    ]
                ]
            }
        ]
    }
]
